64 50
UUU -0.009571689 -0.102149025 -0.13757314 -0.18089773 -0.06826114 0.34100592 -0.36436376 0.10603893 -0.19006427 0.14406058 -0.19589639 0.046970382 0.015972352 0.04826842 -0.2247552 -0.06307032 0.30204892 0.11032798 -0.35042658 -0.15674196 0.3198341 -0.14669795 0.23825108 0.15340376 -0.16617307 0.15352137 -0.07693652 -0.042729985 0.19590992 0.1854743 -0.0062336903 -0.053797062 0.11911624 -0.024781749 0.62260276 0.124047555 -0.114041284 -0.09090517 0.0878149 0.15626603 -0.24055184 -0.15960647 -0.38220128 -0.16491517 -0.08564154 0.17734617 -0.05206736 0.1590176 0.3129652 -0.20966074
AUU 0.05671103 -0.1070786 -0.07462759 -0.32841474 -0.11167101 0.24897794 -0.1742338 0.083708346 -0.12077201 0.062131617 -0.12667507 0.09804685 0.07092457 -0.018800532 -0.37665865 0.037632633 0.21713485 0.122316115 -0.36632234 -0.028529694 0.21046951 -0.22798912 0.15450965 0.16039692 -0.12467855 0.11834089 -0.2339573 0.03696926 0.15762424 0.18453017 -0.016340889 -0.102215365 0.24400271 -0.021369837 0.45628324 0.14140055 -0.12184826 -0.06338933 0.024472151 -0.0026289977 -0.29422045 -0.24082161 -0.18816008 -0.2628429 -0.0948841 0.03157067 -0.12371592 0.12363454 0.39120623 -0.15735303
UUA -0.05638778 -0.17397447 -0.1997602 -0.32604447 -0.10753743 0.31127408 -0.34060225 0.21003577 -0.40113482 -0.012996526 0.18380095 0.20455778 -0.16386767 -0.017319435 -0.31638175 0.17086442 0.36132208 0.23127414 -0.45122972 -0.004473739 -0.014500651 -0.2528343 0.13453148 0.29136825 -0.13635458 0.00956819 -0.18670395 0.1503104 -0.22796266 0.42996845 0.13441628 -0.055248454 0.25130612 -0.029072607 0.58296263 0.2915533 -0.3232455 0.01322622 0.09627991 0.2754311 -0.19468403 -0.1747177 -0.3709773 -0.1551781 -0.1931603 0.33602214 -0.048309237 0.16115615 -0.049905777 0.0005084143
AAU 0.053151425 -0.09959554 -0.13079935 -0.19935143 -0.058032513 0.25502387 -0.34355038 0.122108355 -0.2628194 -0.09573733 -0.0763658 0.14462318 0.038479097 -0.08440845 -0.4199225 0.0629433 0.2449935 0.2810145 -0.57842344 0.07938991 0.16159356 -0.30696455 0.14037536 0.28306103 -0.20282106 0.12955405 -0.19713625 0.21156631 0.22564787 0.13054915 0.06715664 -0.22011217 0.12415307 0.031527378 0.5530629 0.2553224 -0.14640616 -0.05930772 0.14360829 -0.044520557 -0.1209904 -0.24125107 -0.16197754 -0.24302562 -0.19295923 -0.022328017 -0.00087947043 0.16404964 0.26058874 -0.17154177
UAU -0.031640723 -0.123518735 -0.16485894 -0.11979401 -0.10035941 0.3415997 -0.35688147 0.1914376 -0.33844468 -0.040563945 -0.09249005 0.15852554 -0.028563553 -0.046172682 -0.33464825 0.026305892 0.31181464 0.20010006 -0.54408664 -0.030686984 0.22181931 -0.22973707 0.21641162 0.24536438 -0.24594378 0.04189374 -0.10138882 0.09251699 0.16492712 0.21515591 0.124083705 -0.17010711 0.06054135 -0.05373153 0.5812119 0.2723894 -0.19560726 -0.049096096 0.089728385 0.11394342 -0.074404836 -0.18388882 -0.28873432 -0.19419004 -0.20061913 0.18973602 0.047866702 0.21356997 0.20555389 -0.14010876
UAA -0.02013674 -0.15136786 -0.24489358 -0.21646811 -0.044153523 0.28194728 -0.4159013 0.2309339 -0.47059396 -0.18975173 0.16134343 0.2646497 -0.09252008 -0.12419158 -0.35174826 0.21144101 0.32817674 0.35078734 -0.6208727 0.10753852 0.03255252 -0.36728165 0.1235971 0.36370736 -0.18440625 -0.008039675 -0.12895945 0.3156459 -0.082974836 0.37302053 0.15657136 -0.18334161 0.1748788 0.022353167 0.59007794 0.35947666 -0.2961637 -0.016345752 0.1660107 0.1603702 -0.07875708 -0.16516447 -0.2671929 -0.15983766 -0.2769397 0.21330589 0.011287458 0.22206303 -0.060498603 -0.07908898
AUA -0.016002202 -0.14064954 -0.13289183 -0.43259063 -0.060308404 0.23008661 -0.22938778 0.16477294 -0.31131178 -0.050206933 0.22440225 0.1979921 -0.11628306 -0.07391419 -0.39883223 0.20295553 0.30143625 0.28864467 -0.44414762 0.08486168 -0.07385664 -0.3127416 0.1276971 0.2933277 -0.09589814 0.08701072 -0.3235856 0.19784456 -0.15545033 0.30582467 0.07109049 -0.0811883 0.3202007 0.014009123 0.47017148 0.25760412 -0.27188528 -0.019997366 0.10909175 0.1106664 -0.19928977 -0.19065048 -0.26143718 -0.23614413 -0.17708932 0.15493079 -0.046529055 0.12523352 0.052256513 0.011537216
AAA 0.023059338 -0.12064507 -0.16862188 -0.2286655 -0.021495802 0.23364556 -0.3201657 0.17990209 -0.41039017 -0.21361482 0.17275059 0.26961973 -0.01921507 -0.21253255 -0.4687126 0.2573004 0.2462089 0.40584564 -0.6789483 0.2109589 -0.03951764 -0.39289486 0.13059542 0.40311015 -0.26648444 0.04533112 -0.25989735 0.31590572 0.05996389 0.2167161 0.17030494 -0.22998856 0.1550804 0.056758925 0.54337776 0.37903434 -0.258062 0.026586885 0.17778146 0.033713363 -0.0058066705 -0.24921581 -0.08573318 -0.21784197 -0.30159727 0.041489873 0.047620393 0.1980492 0.08262165 -0.08287985
GUU 0.24192882 0.024553457 -0.119479574 -0.56649625 0.04428343 0.12276968 0.020421375 0.08520616 0.03558862 0.03125737 -0.110365964 0.051235046 0.15794367 -0.20446923 -0.122543655 0.14561146 0.20705049 -0.048555903 -0.018153321 -0.04190902 0.28816018 -0.29619855 0.1417436 0.012918932 0.10617937 0.08503564 -0.11497138 0.026958182 0.12960856 0.29598787 -0.08911178 -0.058489025 0.5490277 0.15856579 0.055111386 0.07148974 0.19199893 -0.091484636 0.03422226 -0.17311136 -0.39964736 -0.23113163 -0.2987983 -0.19917214 -0.16054527 -0.2510281 -0.37110633 -0.009812862 0.44275343 -0.5077667
AUC -0.010503231 0.09111817 -0.12338024 -0.42863527 -0.0012529388 0.17494269 -0.13266774 0.0023942757 0.28162518 0.26923075 0.03508969 0.089233145 0.37472972 -0.065911196 -0.30126947 -0.13988194 0.03792886 0.12335045 0.09132501 0.04424916 0.037637927 -0.07678015 0.43988672 0.27370432 -0.061962776 0.24678698 -0.19224675 -0.27385852 0.45851186 -0.19476385 0.018648785 0.06983194 0.27004716 0.13015999 0.18576048 -0.17960137 0.13519321 -0.03714454 -0.053494237 0.00060270866 -0.25135818 -0.230898 -0.45274767 -0.099642314 -0.20831901 -0.23854361 -0.09190621 -0.106872395 0.59241456 -0.3844138
UCU -0.031779952 0.026225623 -0.25387537 -0.57595235 -0.15543386 0.22916766 -0.15056305 0.13292071 0.087549075 0.35043412 0.17729764 0.101582415 0.026183788 0.17748882 -0.20367521 -0.08410497 0.32380182 -0.09336587 0.11164251 -0.13857552 0.06556056 -0.027908906 0.34964946 0.10016446 0.13999969 0.14897004 -0.13380538 -0.27968332 -0.17669037 0.37723717 0.0041372376 0.16507448 0.38134232 -0.07021611 0.25062832 -0.11521699 -0.021458572 -0.1045854 -0.17008182 0.27259415 -0.44616264 -0.178807 -0.7521693 -0.13534877 -0.055292696 0.26535723 -0.16119868 -0.11974663 0.20628469 -0.25379157
UGU 0.11935972 0.12702198 -0.24397759 -0.08264058 -0.101912 0.19989954 -0.24011101 0.21410958 -0.1976264 -0.12662147 -0.156256 0.2133092 0.17957884 -0.2341854 -0.1869036 0.1916681 0.2357017 0.1378672 -0.4952546 -0.008339409 0.28445247 -0.22877215 0.31940854 0.12632424 -0.23055491 0.024808897 0.1113267 -0.055671178 0.48502737 0.1676415 0.25603545 -0.19220786 0.07655841 -0.033848304 0.4158251 0.26822114 0.18008809 -0.052863855 0.18836811 0.047705524 0.11453831 -0.22592883 -0.19361514 -0.09008274 -0.3150347 0.030200006 0.012535764 0.21036826 0.27718532 -0.4205954
AGU 0.15603869 0.17946406 -0.21515302 -0.15317407 -0.049094837 0.15249425 -0.10705134 0.16494867 -0.05411727 -0.09009471 -0.06839692 0.18289012 0.26703766 -0.29255483 -0.22263652 0.13652153 0.1752246 0.14187197 -0.35814774 0.08475883 0.16461092 -0.2159189 0.3604673 0.1899525 -0.198412 0.08067102 0.017970195 -0.12741281 0.56320924 0.037459794 0.21219498 -0.16912226 0.11563547 -0.005998824 0.29348034 0.17281316 0.24343048 -0.041087054 0.14158191 -0.011438824 0.11455576 -0.2261073 -0.2155935 -0.07860552 -0.30717647 -0.11504836 0.03164721 0.121717185 0.38595158 -0.40492153
UUC -0.09118802 0.1265613 -0.15848629 -0.35594407 -0.04640952 0.19590062 -0.13816522 0.074748926 0.2720883 0.36341038 -0.022359101 0.06331733 0.31368226 0.02555857 -0.21461368 -0.23736572 0.12487174 -0.0126952 0.18692516 -0.07336313 0.11252987 0.032142624 0.49463877 0.23083286 -0.09160179 0.22040603 -0.09799027 -0.4514223 0.41991255 -0.07833451 0.05483634 0.16844125 0.18443571 0.07761431 0.2540901 -0.24599479 0.12587458 0.011278477 -0.11320127 0.17571038 -0.30029228 -0.17990178 -0.5811379 -0.055048525 -0.11753177 -0.012401496 -0.10942373 -0.11037757 0.59323794 -0.39968324
CUU -0.053625233 0.10768941 -0.31385776 -0.33934143 -0.08267121 0.3363864 -0.17279677 0.19046003 -0.14679094 0.15518104 -0.002949553 0.115824886 -0.06569324 0.09497517 -0.0039766985 -0.04819694 0.31030148 -0.009539848 0.040388424 -0.24166273 0.09393599 -0.06661451 0.2912759 0.24985053 0.016355667 0.035285484 0.055405416 -0.27578616 -0.011198706 0.38804835 0.17769179 0.109975874 0.26300117 0.105268 0.39791366 0.06129059 -0.099420935 -0.031452294 0.018327953 0.35662836 -0.29959202 -0.08081383 -0.80296725 0.07693302 -0.04779328 0.42078787 -0.15925628 0.022414317 0.14100575 -0.24162559
GAU 0.30660385 0.06434718 -0.12190827 -0.41549516 0.060269535 0.08688649 0.018713547 0.1294201 -0.14543705 -0.13134219 -0.17413922 0.12215569 0.15132488 -0.27369523 -0.21189642 0.21800248 0.20237564 0.02012248 -0.21704416 0.05966622 0.24088565 -0.3551443 0.062083017 0.16520385 -0.053224493 0.020525774 -0.102782436 0.11193454 0.19346254 0.36961085 0.058843188 -0.14365716 0.3801103 0.14998978 0.20411347 0.171749 0.15751342 -0.010778696 0.12361071 -0.17801349 -0.31933817 -0.22497688 -0.1846192 -0.13200502 -0.145122 -0.18594784 -0.30252925 0.08767788 0.39304885 -0.47974816
UAG -0.074006505 -0.13461538 -0.23346107 -0.45686463 0.18889405 0.13869745 -0.1940064 0.14108668 -0.2576426 -0.10060832 0.55759114 0.3302034 -0.017745571 -0.30701408 -0.44598314 0.46187636 0.21693283 0.3954338 -0.43201286 0.2120555 -0.26784036 -0.22743478 0.39328405 0.3420336 -0.26807874 0.08393471 -0.19036178 0.17436332 -0.08909569 0.15003385 0.2044111 -0.021526916 0.29644027 0.10716947 0.31530944 0.30426824 -0.13925876 0.11844013 0.1818533 0.18119504 0.069970064 -0.25454342 -0.20909213 -0.19784927 -0.36119536 0.018942753 0.021246672 0.084682986 -0.10459241 -0.061855417
GUA 0.25128832 0.023427743 -0.13692866 -0.5109607 0.07303493 0.06005356 0.05104161 0.12725313 -0.18327023 -0.121090546 -0.029779945 0.18373926 0.11720009 -0.25298232 -0.2028786 0.3079182 0.19674595 0.034732223 -0.09777592 0.051622175 0.13928664 -0.3635249 0.010578378 0.15853335 -0.000120449484 0.007870448 -0.14185798 0.13274564 -0.0024868103 0.47409526 0.07716623 -0.05002405 0.49949434 0.1963993 0.17622492 0.14628488 0.06378599 0.049583457 0.063462906 -0.10846538 -0.4381881 -0.24734345 -0.20343372 -0.12469108 -0.16677837 -0.08132948 -0.37250677 0.061118323 0.27133998 -0.46540266
ACU 0.015422064 0.0044431053 -0.15114802 -0.50968707 -0.1189061 0.17312528 -0.15275963 0.0593934 0.10090272 0.23163271 0.121466465 0.13045897 0.096064754 0.040097877 -0.31585866 0.021257974 0.22891337 0.046676047 -0.12336306 -0.025239991 0.09532644 -0.11919345 0.32072687 0.05851389 0.05643201 0.19949797 -0.24442445 -0.14123519 0.03127596 0.1778844 -0.03267882 0.05233054 0.33329636 -0.045092866 0.25694424 -0.048547387 0.03800879 -0.12820603 -0.08418625 0.09502064 -0.319259 -0.25253198 -0.45733187 -0.22992688 -0.14757875 0.032926433 -0.0955962 -0.08307043 0.35033154 -0.26597467
UGA 0.08303148 0.118647575 -0.25169858 -0.1174691 0.00022456398 0.21106629 -0.27191728 0.13813946 -0.20146403 -0.22944714 0.052599516 0.30720672 0.23610905 -0.378846 -0.17701341 0.26036218 0.20089117 0.3666869 -0.5580691 0.18511777 0.1338587 -0.3215468 0.35490295 0.24304245 -0.19740857 0.02603886 0.06888697 0.102492936 0.44448075 0.08484533 0.27383035 -0.21229059 0.1264908 0.030139927 0.25949126 0.27348852 0.12491159 -0.052863885 0.17283125 0.03328504 0.23324466 -0.25016558 -0.16671687 -0.030282605 -0.4572961 -0.12098725 0.08350993 0.14370534 0.13589962 -0.45211563
UCA -0.039730366 -0.05536483 -0.16070607 -0.57312894 -0.07924885 0.17337799 -0.13340947 0.12729421 -0.052497685 0.28207648 0.27554703 0.14592014 -0.08930415 0.10463692 -0.3649712 0.08095609 0.36791652 0.027561802 -0.12795141 -0.052796245 -0.02814524 -0.10474027 0.31423044 0.12709133 -0.038122725 0.20194507 -0.26994747 -0.12667686 -0.2785393 0.36546573 0.021837208 0.16213109 0.31916264 -0.09213659 0.42162326 -0.001441074 -0.12857455 -0.0017439179 -0.07753866 0.3021664 -0.43066156 -0.24177544 -0.56686825 -0.22596574 -0.08086911 0.28543702 -0.11624716 -0.04800153 0.15602069 -0.12442428
CUA -0.043330476 -0.005010789 -0.2646523 -0.3596296 0.019060545 0.33897972 -0.24299656 0.17962076 -0.26023808 0.08640556 0.114132516 0.17368545 -0.11350398 0.008222474 -0.02716729 0.100834474 0.3412309 0.1444963 -0.1714354 -0.18244436 0.06684407 -0.10558007 0.32782227 0.2643531 -0.03177372 0.0643508 0.022974575 -0.11728011 -0.1135967 0.32574236 0.12068455 0.078214765 0.28298175 0.09166625 0.4377859 0.18644512 -0.12923057 0.0013679273 0.1283155 0.3926764 -0.24120842 -0.07569101 -0.66764796 0.017323155 -0.13837774 0.35562038 -0.1409653 0.087722465 0.020934487 -0.14012986
GAA 0.25692853 0.017805675 -0.15563168 -0.37431675 0.08069735 0.09835268 -0.10489302 0.14974247 -0.2043779 -0.24724942 0.009219992 0.18131159 0.16045073 -0.3849062 -0.2184698 0.29184964 0.22058958 0.19639136 -0.34055364 0.20272115 0.15535143 -0.4393228 0.08812087 0.2208857 -0.06427815 0.027248772 -0.09132174 0.25731468 0.13788709 0.32794636 0.05216016 -0.15914772 0.37719047 0.1787436 0.18181068 0.23535511 0.09144962 -0.006641742 0.15426546 -0.16696393 -0.17634855 -0.2502635 -0.1083928 -0.15149818 -0.2847826 -0.26576903 -0.24618858 0.086847626 0.24751124 -0.4865814
CAU -0.05653528 0.11729805 -0.26553166 -0.23887695 0.038273428 0.29522598 -0.2502704 0.1691475 -0.088247865 0.12292043 -0.013043008 0.12709026 0.08328243 -0.043576438 -0.078532055 -0.010257103 0.23810689 0.0824339 -0.064242765 -0.14603359 0.12093261 -0.04692052 0.41471398 0.29580548 -0.1406139 0.0976824 0.0827674 -0.25667137 0.23742981 0.08961202 0.14387275 0.051262025 0.10340685 0.12915823 0.40297288 0.051940057 0.0010488902 0.04366112 0.13257958 0.27053344 -0.14292087 -0.1012699 -0.64592373 0.04661763 -0.12409793 0.19979721 -0.074994035 0.066705324 0.26443747 -0.3137822
AAC 0.00920131 0.09064775 -0.10478826 -0.30757406 -0.023881435 0.18818057 -0.12423254 0.06006499 0.16939372 0.19676708 -0.04710552 0.07061625 0.34916708 -0.082386225 -0.37337515 -0.16652548 0.09028886 0.08907449 -0.07503896 0.08047944 0.08027948 -0.09720024 0.41026497 0.30838186 -0.16305354 0.20888883 -0.18745773 -0.24317664 0.48688522 -0.14194928 0.060976025 0.0006533273 0.12771864 0.06731559 0.3052992 -0.113642745 0.10139408 0.03684714 -0.018569006 0.02261149 -0.19882484 -0.22022565 -0.35960096 -0.13245605 -0.137688 -0.15845294 -0.0790288 -0.059302222 0.61371887 -0.33450207
AGA 0.12500565 0.15981047 -0.23088883 -0.168263 -0.023325928 0.14513959 -0.23622294 0.14088477 -0.11686995 -0.24567379 0.058722466 0.2950661 0.2864773 -0.40461093 -0.24874547 0.25120986 0.1669063 0.33689126 -0.5152282 0.26382983 0.1208 -0.36513528 0.31171605 0.27500173 -0.19027835 0.08447892 0.0129477745 0.092223085 0.50605375 0.053757828 0.24837933 -0.22697924 0.16082746 0.08241562 0.2607397 0.21449845 0.18026482 -0.05209177 0.15947054 -0.047374923 0.18599695 -0.275029 -0.118996084 -0.06893638 -0.4511786 -0.19432138 0.032052457 0.1045746 0.24924387 -0.499135
CAA -0.07384798 0.03264004 -0.29740003 -0.30587336 0.031085419 0.30663854 -0.3127914 0.1893067 -0.2909777 -0.08561374 0.20652601 0.25359845 -0.051839683 -0.085500464 -0.07645757 0.12771943 0.26737553 0.27785438 -0.27938843 -0.036690455 -0.019136183 -0.23891744 0.2579201 0.3463586 -0.033135027 0.009755173 0.024207484 0.060758878 -0.06287233 0.29152104 0.21149664 -0.036634013 0.24251321 0.15562072 0.35160545 0.22082585 -0.1729697 -0.012226554 0.111088686 0.30240646 -0.09325768 -0.1230209 -0.5920786 0.061137095 -0.25722775 0.24043839 -0.046803936 0.04632665 -0.05335313 -0.2282865
UUG -0.025925392 -0.11628168 -0.232406 -0.5980843 0.109146684 0.13795975 -0.04205602 0.17241985 -0.22091693 0.03242226 0.5018079 0.26805648 -0.08406132 -0.1836477 -0.3208183 0.43031055 0.29213777 0.20404692 -0.21795054 0.05999745 -0.2724102 -0.15201993 0.3639439 0.24120097 -0.13671526 0.05693481 -0.17627588 0.001709553 -0.30013335 0.3522514 0.16553059 0.07970006 0.44335768 0.013292478 0.27336022 0.23901513 -0.09502933 0.09665696 0.093055636 0.30476022 -0.15353814 -0.16760306 -0.4059337 -0.18685888 -0.22000605 0.20678379 -0.13150927 0.04263308 -0.1056265 0.0070730792
AAG 0.08187804 -0.12073695 -0.24324577 -0.60435313 0.13363831 0.09624375 -0.06576601 0.19154644 -0.25296432 -0.16291669 0.5514845 0.3155463 -0.08369378 -0.34418997 -0.4408709 0.5673226 0.2674304 0.3548693 -0.48544562 0.21362138 -0.28597236 -0.32061702 0.29903084 0.25288373 -0.14414233 0.05803038 -0.25372073 0.25223327 -0.2412673 0.31251436 0.16459337 -0.090294994 0.47291785 0.06987593 0.2578137 0.35858023 -0.085299395 0.037310332 0.1671084 0.084814 -0.031076927 -0.22990236 -0.18859082 -0.26613674 -0.32561624 -0.0027338704 -0.04109804 0.08975545 -0.12489586 -0.016227892
AUG 0.059826497 -0.11485586 -0.15799625 -0.5905528 0.09917311 0.10076833 0.017267186 0.16276428 -0.18975934 0.015734171 0.42373177 0.25385204 -0.045966156 -0.19454366 -0.48390806 0.45788583 0.23778544 0.20959152 -0.33112028 0.119715095 -0.26619527 -0.22576547 0.2472105 0.24894944 -0.20978118 0.13032578 -0.32089895 0.07090565 -0.19011542 0.26275414 0.14148974 0.033893105 0.40510887 0.029402144 0.3653087 0.22940102 -0.07398244 0.13031785 0.1351756 0.15634322 -0.21655898 -0.24902187 -0.17662783 -0.2699751 -0.161911 0.1042375 -0.09904728 0.07486681 0.06967911 -0.0064615547
ACA 0.06841552 -0.091694504 -0.19892454 -0.5836358 -0.12522662 0.18070425 -0.1078609 0.15941621 -0.109203294 0.12500961 0.26607302 0.21425354 -0.07077409 0.052372485 -0.32493407 0.19989724 0.31363764 0.04955497 -0.20983455 -0.04658161 -0.06241105 -0.18832178 0.16940995 0.117818564 0.042625807 0.11491799 -0.259527 0.0026627467 -0.3297946 0.46247956 0.061079033 0.08372751 0.42364544 -0.08374526 0.37005568 0.08549288 -0.08240525 -0.03913411 -0.04631266 0.23102634 -0.43380406 -0.24670042 -0.44144562 -0.22049633 -0.12628703 0.24813718 -0.14898409 -0.006065571 0.09696708 -0.10526211
UAC -0.043767054 0.068774804 -0.19017139 -0.23492357 0.03776896 0.1859463 -0.21837111 0.12739068 0.11217577 0.1731929 0.03253724 0.10934404 0.3234468 -0.06851599 -0.29053986 -0.09548527 0.09936301 0.09967112 -0.020506743 0.026655307 0.062442333 -0.06373088 0.43807822 0.3231824 -0.23169032 0.19996275 -0.08622493 -0.26949424 0.43848664 -0.11831903 0.13142173 0.05986962 0.07616384 0.07694794 0.38390905 -0.08785292 0.13523896 0.078411534 0.037789773 0.12034189 -0.16582075 -0.20031959 -0.4403267 -0.06254105 -0.16692585 -0.0639134 -0.042322777 -0.008141942 0.51539683 -0.38009667
CCU 0.026243487 0.07594541 -0.25109214 -0.4356036 -0.010864001 0.2076944 -0.1621377 0.15305766 0.053288434 0.33635536 0.05266499 0.10892454 -0.044673283 0.12400043 -0.13444 0.019642625 0.33683178 -0.08537881 0.04017827 -0.24239065 0.19363987 -0.059663158 0.31819043 0.11998502 0.00479781 0.25218907 -0.04007234 -0.26990476 -0.10128652 0.3360223 -0.0067341765 0.21654692 0.26450878 0.0459978 0.5121753 -0.08901045 0.024881076 -0.09279851 -0.0063680992 0.34255022 -0.5222969 -0.23171903 -0.7884097 -0.018666683 0.003831404 0.32204527 -0.16046387 -0.005527438 0.31089514 -0.37652245
UCC -0.08043171 0.028722037 -0.2175147 -0.38182813 0.004460843 0.12008062 -0.25409827 0.05492028 0.30359223 0.34442547 0.087878816 0.10040366 0.28893265 0.051665336 -0.26256078 -0.12234297 0.12506019 -0.015139115 0.1620016 -0.07454594 0.15112762 -0.014920033 0.4053059 0.169095 -0.06781514 0.32213238 -0.1483572 -0.30920905 0.21541347 0.032884374 -0.024835521 0.20487712 0.21720037 0.0907321 0.40836102 -0.30792704 0.14572045 -0.08422293 -0.13060303 0.1779138 -0.47501126 -0.326265 -0.63336426 -0.07636028 -0.12736787 -0.0014883301 -0.14282142 -0.10037503 0.58963716 -0.5129377
CUC -0.09037782 0.07548384 -0.23886697 -0.2785331 0.08618861 0.19779523 -0.2231456 0.118521586 0.15419365 0.28834933 0.0018009869 0.07154402 0.25486177 0.022027753 -0.13094237 -0.15463807 0.13317645 -0.009742425 0.19937094 -0.12219747 0.1490714 0.0046024057 0.40937224 0.28807923 -0.14507131 0.26906142 -0.007926655 -0.37601236 0.28570554 -0.019504186 0.046066925 0.18367991 0.14859395 0.16837779 0.44889092 -0.21731617 0.099282324 0.03138622 0.003102527 0.26249877 -0.386251 -0.2037248 -0.6835199 0.049591083 -0.057130255 0.08357779 -0.14208396 -0.030433467 0.52341604 -0.4491734
AGC 0.11056426 0.22812632 -0.20124635 -0.05799264 -0.0008725857 0.038833708 -0.171344 0.12255034 0.14490795 0.047958124 -0.11254329 0.21943337 0.4547479 -0.2963654 -0.31031448 0.120203905 0.040894944 0.13023122 -0.2405493 0.106680475 0.19070402 -0.22561619 0.3143471 0.29891658 -0.3622706 0.283709 -0.019825766 -0.2385744 0.70524955 -0.15978499 0.23624168 -0.035801228 -0.005357917 0.091005385 0.4856123 -0.046039782 0.35513112 0.015251158 0.14653563 -0.017626995 -0.07548924 -0.36655384 -0.20391148 -0.014744424 -0.27294496 -0.2391053 0.011639148 0.10329783 0.7045526 -0.6433074
CAC -0.14656085 0.13263088 -0.28530318 -0.21884318 0.08169772 0.15872882 -0.21092023 0.15156025 0.072131604 0.13749994 0.12507153 0.14959584 0.20820668 -0.0895921 -0.18526664 -0.10463126 0.09537268 0.0982707 0.10799505 -0.011597707 -0.032924768 -0.06517221 0.378578 0.4381328 -0.16757907 0.19552548 -0.0067674234 -0.29013762 0.29843697 -0.035898797 0.19835298 0.15838066 0.08768897 0.2537743 0.38466167 -0.1432514 0.04514133 0.06752868 0.03884473 0.27104732 -0.21325791 -0.17557026 -0.6683787 0.114952706 -0.15442535 0.09024818 -0.05623887 -0.0026934722 0.43578374 -0.4592182
UCG 0.049254008 -0.06710855 -0.275585 -0.57233715 0.038234815 0.057533115 -0.024573086 0.19043554 -0.07843909 0.21570927 0.4079489 0.24514093 -0.08873629 -0.075288475 -0.32985765 0.40953177 0.30627075 0.011331204 -0.10607743 -0.050940823 -0.14807025 -0.12974516 0.21935323 0.12770143 -0.11020277 0.1923068 -0.17209417 -0.09589002 -0.40324578 0.46702677 0.12604816 0.24039757 0.38589457 -0.028502148 0.48385876 0.045572743 0.01787468 0.04563683 0.04798385 0.34570032 -0.47484827 -0.3041388 -0.5201729 -0.12114463 -0.098725446 0.3147362 -0.16602804 0.031885095 0.0603106 -0.16159338
GUG 0.24320501 -0.021963375 -0.16150491 -0.71236384 0.22529255 -0.090668775 0.20233864 0.16463523 -0.1348859 -0.046462215 0.3711543 0.23364434 0.010206209 -0.38802555 -0.36966196 0.58323145 0.2343469 0.056811444 -0.07753503 0.11897277 -0.13009147 -0.3354521 0.115886554 0.12937522 -0.09777434 0.10627514 -0.2413674 0.14915186 -0.26094142 0.4457048 0.0663946 0.085755795 0.5915154 0.18195772 0.1687134 0.18106957 0.085502654 0.084883444 0.14154603 -0.053203892 -0.43777215 -0.30907905 -0.18411304 -0.21140362 -0.16731535 -0.086830236 -0.32475346 0.077347524 0.17200619 -0.32234833
GAC 0.12856556 0.16325052 -0.15712641 -0.2976082 0.1432692 0.033013053 -0.10552182 0.055227503 0.15253976 0.050126184 -0.078548715 0.147104 0.4258915 -0.29899925 -0.25912774 0.091086924 0.030472625 0.12103822 0.0054925843 0.14347325 0.17191735 -0.27945188 0.22553647 0.32428366 -0.17866021 0.2308372 -0.051371716 -0.08519396 0.5038085 -0.06658773 0.07488387 -0.02376046 0.21606252 0.2759715 0.24285807 -0.07578644 0.26034316 0.05084008 0.07667196 -0.14636785 -0.28660554 -0.3108374 -0.30153906 -0.027451828 -0.25402057 -0.40445614 -0.22873524 -0.014379807 0.6394881 -0.64091414
CGA 0.027848326 0.13780376 -0.35264072 -0.18110996 0.013741569 0.17563078 -0.26188433 0.23567528 -0.2019521 -0.1454395 0.08166289 0.29122537 0.089208275 -0.25930312 -0.0933053 0.27427 0.2148667 0.20480469 -0.3165069 -0.028754242 0.08936101 -0.21638285 0.3286221 0.29019478 -0.15451914 0.04318625 0.16956761 -0.047996063 0.28076833 0.22420494 0.29284933 -0.07641851 0.16487604 0.16177797 0.40758327 0.23973282 0.07932255 -0.009205872 0.20891856 0.21540825 0.05258162 -0.19284277 -0.45584533 0.08227205 -0.3366371 0.10596828 -0.06232576 0.16414526 0.13577881 -0.4020373
GUC 0.109785326 0.08005216 -0.13395163 -0.39670676 0.13257574 0.03038572 -0.060109798 0.054860976 0.21389961 0.13398242 -0.11970639 0.06919229 0.4073894 -0.21306074 -0.25285038 -0.0067017186 0.056875095 -0.023252321 0.10830378 0.028725922 0.2234557 -0.20151037 0.22395161 0.23489913 -0.13953279 0.25592086 -0.1080364 -0.14013276 0.40919107 0.012080045 -0.0025890693 0.06999671 0.30267176 0.2684472 0.28179666 -0.1813584 0.22552927 0.051619362 0.0037366992 -0.09072436 -0.45917702 -0.3034592 -0.34792683 -0.06613924 -0.11772416 -0.32499886 -0.32392314 -0.051302444 0.72519565 -0.59151715
UGG 0.021302348 0.008037277 -0.352897 -0.33945277 0.17296515 0.07172005 -0.2311251 0.15067403 -0.09609868 -0.21862757 0.38078937 0.3626755 0.16556332 -0.46066225 -0.23759088 0.48562607 0.15066864 0.3498203 -0.40151444 0.19071883 -0.05708476 -0.28622973 0.40924814 0.23767954 -0.1941468 0.09110422 0.06374871 0.10767873 0.21609993 0.12174853 0.24884847 -0.115047686 0.32717106 0.16384439 0.24019225 0.2697067 0.1677873 -0.016622683 0.15320784 0.11289079 0.16680317 -0.28605622 -0.26250955 -0.028236631 -0.49650836 -0.15465178 -0.01882097 0.10551555 0.02249856 -0.36945608
GGA 0.32603925 0.19996521 -0.26570722 -0.22917353 0.13116093 -0.03425437 -0.0327307 0.21557716 -0.21132658 -0.33560306 -0.014653573 0.3250618 0.25783548 -0.54902184 -0.18063669 0.4888282 0.1494873 0.1632599 -0.37178802 0.22688739 0.14873418 -0.48943016 0.04938406 0.26545393 -0.21148995 0.023315975 0.030543339 0.18354031 0.35657454 0.34855646 0.26509464 -0.1819544 0.25548196 0.20235392 0.30728388 0.274603 0.29730955 -0.0006633279 0.27160278 -0.15932333 -0.077963434 -0.30855924 -0.04920323 0.017415488 -0.35022995 -0.2507298 -0.16277555 0.16813019 0.33092377 -0.70150167
CAG -0.018566262 -0.022965487 -0.33671126 -0.4494305 0.16830198 0.14982045 -0.14649747 0.20075634 -0.17902797 -0.020783676 0.40810165 0.31145492 -0.027001662 -0.21840547 -0.18553823 0.44164804 0.24207632 0.24141441 -0.21641868 0.006871505 -0.14969993 -0.15463455 0.36902007 0.29548225 -0.14674841 0.09398301 -0.0036052675 -0.0017310572 -0.14444865 0.29993314 0.21702623 0.09152055 0.35503745 0.1795811 0.35905823 0.21964833 -0.005020169 0.05837653 0.16601288 0.30125803 -0.14018066 -0.2123517 -0.51904863 -0.018443825 -0.28645945 0.15526518 -0.13529593 0.068914875 -0.037096806 -0.19343098
AGG 0.079928994 0.07480336 -0.27815858 -0.34124207 0.2243192 0.017218899 -0.105391435 0.10342173 -0.08331806 -0.2750936 0.3936146 0.38557127 0.25626737 -0.5634798 -0.3386125 0.5746194 0.1254874 0.41394913 -0.4455583 0.31082428 -0.1283637 -0.31717008 0.38569576 0.2766292 -0.2585544 0.13344456 -0.024985213 0.14674711 0.31732795 0.06796123 0.26979566 -0.12213334 0.29104146 0.18791598 0.18075635 0.27262828 0.20290893 0.030973937 0.23466174 -0.029195683 0.18896194 -0.34942833 -0.06655565 -0.062750176 -0.48952633 -0.26743326 -0.0051499214 0.12384425 0.08290937 -0.440564
ACC -0.079136744 0.025013117 -0.20260069 -0.39496055 -0.091948755 0.14499559 -0.254875 0.07198434 0.27134195 0.32943848 0.07420497 0.08767515 0.26687852 0.10950654 -0.35652062 -0.18845123 0.14032646 -0.008858604 0.047827832 -0.047526352 0.12240306 -0.029135361 0.36893094 0.19294605 -0.05443552 0.2987804 -0.20392577 -0.27539563 0.21688177 0.0053144153 -0.018761419 0.13820563 0.20233473 0.057931818 0.42384222 -0.27410766 0.06766947 -0.08117545 -0.15732597 0.15541074 -0.4529991 -0.31238276 -0.5563374 -0.15337573 -0.095124535 -0.012709634 -0.122289754 -0.100137986 0.59499484 -0.35719392
GCU 0.19598363 -0.019823039 -0.14238985 -0.50248533 0.029956916 0.035580073 -0.030798718 0.06611384 0.059406757 0.10258535 -0.15862589 0.11938298 0.15924017 -0.08607269 -0.21581922 0.1749613 0.21726081 -0.13889772 0.022954686 -0.11907554 0.35133493 -0.19314182 0.100393504 -0.008152483 0.02642254 0.16772576 -0.12238192 -0.033037476 0.049224656 0.40787977 -0.05539403 0.067972854 0.4134366 0.11451066 0.32127777 -0.06916948 0.17274669 -0.04603987 -0.07056291 -0.076834105 -0.6432487 -0.35059536 -0.33304825 -0.17035155 -0.07170959 -0.063224465 -0.3933146 0.014599912 0.54034096 -0.563207
CGU 0.0130413 0.20601518 -0.31905216 -0.091692165 0.00909684 0.22732568 -0.25531903 0.15707119 -0.06635327 -0.031375553 -0.14697738 0.20093337 0.23585154 -0.19892575 -0.015692582 0.044262454 0.20784344 0.12556183 -0.23201855 -0.09313744 0.29003167 -0.17556451 0.36707962 0.20436138 -0.17085381 0.13703132 0.20544155 -0.1814928 0.46797562 0.08692726 0.24826746 -0.06329524 0.08621994 0.121782415 0.3902648 0.070392564 0.17221363 -0.08379995 0.14390886 0.17264524 -0.021450384 -0.21743724 -0.5043355 0.115510084 -0.27338085 0.0759267 -0.015209098 0.13213186 0.36748016 -0.599354
GGU 0.26388875 0.21250089 -0.20305963 -0.19003093 0.10033491 0.037601385 -0.10081181 0.1042226 0.019501012 -0.18054529 -0.18931623 0.21831 0.37103674 -0.4741777 -0.17222016 0.28729707 0.13076997 0.12971056 -0.28120312 0.16916537 0.3381505 -0.37264395 0.16994618 0.16569847 -0.19575891 0.14196649 0.053874712 0.03397157 0.5478842 0.13599053 0.14217891 -0.13946578 0.22930728 0.1976072 0.24981536 0.11092961 0.37761408 -0.055394895 0.16624983 -0.20825659 -0.10570203 -0.34494627 -0.09305212 -0.053692535 -0.32621711 -0.3642685 -0.17169452 0.11282019 0.51057374 -0.7792697
UGC -0.026660645 0.1834401 -0.2583703 -0.098944426 0.042237327 0.11754217 -0.17938416 0.1448702 0.11626173 0.062524885 -0.0051840222 0.15967943 0.40260598 -0.27916303 -0.2595665 -0.029483343 0.086289674 0.12321522 -0.08997985 0.090803206 0.1132961 -0.15407537 0.41418362 0.32402036 -0.29900378 0.22657655 0.027957058 -0.26814348 0.65249014 -0.17184354 0.2113864 0.019785699 0.023026772 0.15813689 0.39184263 -0.07392863 0.2530165 0.033213317 0.08165622 0.088553645 -0.011874396 -0.25730672 -0.37640473 0.012892412 -0.29453605 -0.12557848 0.026173394 0.061076533 0.5779645 -0.5788981
ACG -0.03703473 -0.069681555 -0.1953821 -0.7270381 0.12080112 -0.03877079 0.07525947 0.111404106 0.0490354 0.20180856 0.60665584 0.2773355 -0.023294471 -0.1421213 -0.50735015 0.42270035 0.22996165 0.096444406 0.013900422 0.10214837 -0.28042486 -0.13334234 0.28863472 0.185705 -0.13283424 0.28023922 -0.36834428 -0.07576276 -0.40325013 0.2882538 0.08901801 0.2412275 0.48428047 0.048375413 0.31265152 -0.042955372 -0.008546781 0.106390774 0.0021420084 0.2583485 -0.49257123 -0.36560735 -0.449129 -0.21455891 -0.13112545 0.155046 -0.17784047 -0.034627315 0.14058425 -0.14811802
CUG -0.04757385 0.0039127604 -0.3157132 -0.50736713 0.17542526 0.123810515 -0.1267059 0.13115287 -0.061789833 0.082320206 0.44897446 0.25654298 -0.02288676 -0.20577393 -0.1646977 0.36668354 0.22257912 0.17497663 -0.02422371 -0.028399378 -0.18120527 -0.14010578 0.33022055 0.28954133 -0.098502725 0.17135392 -0.03398156 -0.09296888 -0.19235913 0.26788184 0.17093323 0.184093 0.39856157 0.21497251 0.33406252 0.09130893 -0.009635658 0.069259904 0.10874395 0.3409454 -0.2600405 -0.22488934 -0.60741913 0.030984245 -0.20280826 0.17126188 -0.16417803 0.023689667 -0.0020952877 -0.21641558
GCA 0.13730042 -0.040466607 -0.19813663 -0.6375522 0.07178447 0.008665126 -0.019159526 0.12525064 -0.025325231 0.0163663 0.21344993 0.1817205 0.04232446 -0.2003345 -0.2374545 0.3029758 0.21780531 -0.009219603 -0.0058016027 0.029995665 0.11694014 -0.32235548 0.055788204 0.074639104 0.10117619 0.1413505 -0.2407875 0.1026754 -0.24004547 0.46222728 -0.029169248 0.08796619 0.571688 0.16712983 0.19468996 -0.0030540847 0.084458485 -0.055307142 -0.036094163 -0.012956992 -0.57124394 -0.33737025 -0.37059206 -0.17681342 -0.19340208 -0.07269222 -0.33202037 -0.036153276 0.31046423 -0.47949737
GAG 0.18308118 -0.00017699965 -0.19769779 -0.59115493 0.26855227 -0.054754008 0.11975323 0.14279534 -0.11702608 -0.12624219 0.3767455 0.2571405 0.098509245 -0.40704498 -0.41125458 0.51937896 0.17969847 0.1278144 -0.12315525 0.18927975 -0.17288676 -0.32331637 0.14337204 0.25672367 -0.19048285 0.12947366 -0.22507113 0.15281226 -0.0900135 0.33562866 0.1336474 0.017065337 0.46619502 0.23598242 0.22163264 0.15844695 0.10433219 0.1265997 0.14260274 -0.044009417 -0.30764925 -0.29296705 -0.15147316 -0.15442398 -0.18046142 -0.109404005 -0.23754343 0.058745693 0.1736587 -0.35689607
CCA -0.035357915 0.08899376 -0.33269638 -0.50502694 -0.02590194 0.20043446 -0.15670027 0.16799901 -0.013561875 0.29158327 0.25313264 0.1915273 -0.012566158 0.08089213 -0.14808248 0.08199134 0.33015195 0.01681505 0.10655511 -0.13952284 -0.027295187 -0.070994034 0.31018367 0.23874247 0.040886767 0.1976132 -0.08515951 -0.26236448 -0.22738431 0.39596784 0.10246068 0.24057752 0.31847784 0.06756038 0.41561702 -0.05862536 -0.055882756 -0.032224145 -0.026748305 0.37954363 -0.4555934 -0.21813442 -0.838892 0.031989496 -0.056319498 0.36763608 -0.16847913 -0.07253846 0.1288195 -0.29283324
GCG 0.32166636 0.0013471207 -0.15607515 -0.86852306 0.14942814 -0.043237146 0.32677296 0.16285639 -0.0031682632 0.12642732 0.27128273 0.20403449 0.013170134 -0.23170549 -0.27426115 0.54263765 0.32142764 -0.14938469 0.082920544 -0.051379606 -0.06290282 -0.1934282 0.19376445 -0.003190042 0.0067869364 0.14364006 -0.22530928 -0.10701712 -0.3270193 0.59674513 0.05735284 0.17385873 0.69117916 0.029502554 0.13984309 0.08630667 0.25162518 0.108886756 0.02933133 0.08367631 -0.6396137 -0.3146876 -0.35963792 -0.25473756 -0.04856966 0.055864383 -0.4514787 -0.025849184 0.2647119 -0.3586214
CCC -0.02248943 0.2364665 -0.2574853 -0.5559859 -0.012611467 0.19034307 -0.04076176 0.07092779 0.3785658 0.4839536 0.11825963 0.071993865 0.2984165 0.07970206 -0.119731344 -0.20679933 0.19592476 -0.1372831 0.42675 -0.10754043 0.05226047 0.11296508 0.5970869 0.19527628 0.06581015 0.23394726 -0.06413455 -0.61279625 0.24279648 0.071185626 0.051908124 0.29888675 0.2983211 0.06878187 0.12770665 -0.35293332 0.21519232 -0.027705403 -0.18027347 0.277176 -0.4391261 -0.1859226 -0.8921553 -0.015316182 -0.038399167 0.104646586 -0.18031897 -0.23750341 0.53848857 -0.5081782
GGC 0.32894415 0.37040043 -0.17631477 -0.40301475 0.10795267 0.0045080287 0.17409211 0.11331736 0.27445668 0.057737786 -0.15269108 0.13910072 0.5816583 -0.42579937 -0.1609999 0.113557756 0.09255513 -0.047937635 0.10768202 0.13151328 0.2011777 -0.21290831 0.44420537 0.20886765 -0.10341145 0.1770891 0.077515766 -0.38285488 0.72583413 -0.0053354474 0.17227599 0.030339181 0.29109335 0.16482 0.024923189 -0.11006192 0.60944504 0.072890736 0.0862398 -0.12533727 -0.19800055 -0.2862179 -0.32959244 0.0054177004 -0.24545215 -0.40616992 -0.28215167 -0.06236689 0.7477992 -0.8169637
CCG 0.097766675 0.06620422 -0.26875955 -0.78918254 0.08041648 0.12417168 0.16540621 0.15580218 0.043683607 0.34306476 0.3749137 0.19392551 -0.031740833 -0.0043783723 -0.15549241 0.29921782 0.36988455 -0.086594224 0.18517213 -0.14020719 -0.12465235 0.017979493 0.47641248 0.07323116 0.0531942 0.18116522 -0.09441043 -0.3717053 -0.352877 0.45718172 0.08237668 0.31065196 0.5417981 -0.030276971 0.15040118 -0.012079476 0.14376336 0.07163588 -0.033554267 0.40667862 -0.46447372 -0.20393158 -0.76749057 -0.12126397 -0.054835174 0.2905649 -0.29489988 -0.13846216 0.085198596 -0.21585509
GGG 0.3625165 0.22963251 -0.24481352 -0.52088803 0.21868522 -0.057179652 0.10363553 0.13615051 0.027415253 -0.22011055 0.19829032 0.28977734 0.31569025 -0.60524935 -0.19070722 0.5561452 0.17915927 0.16190198 -0.20915344 0.27342716 0.011846837 -0.39563408 0.3133273 0.14930648 -0.08014463 0.07451219 0.017164225 0.040475875 0.30971563 0.25558236 0.15971147 -0.07848002 0.4799012 0.17449686 -0.03476077 0.19538389 0.43933976 -0.017306603 0.18548028 -0.17310311 -0.024081176 -0.33109552 -0.10486755 -0.08351813 -0.40629023 -0.39481857 -0.217023 0.011998039 0.27123994 -0.66912466
CGC 0.13060382 0.32615533 -0.2537514 -0.29075268 0.011594874 0.12909065 0.0452028 0.15871064 0.1807546 0.1694334 -0.09765215 0.14761779 0.3863851 -0.1941038 -0.07923077 0.078172624 0.16079943 -0.05390422 0.07972049 -0.06958028 0.16329569 -0.047339756 0.5238086 0.17109017 -0.13918278 0.17740022 0.12443583 -0.50957227 0.5625231 0.023710487 0.235998 0.09359425 0.16616692 0.0510811 0.22999902 -0.08019691 0.43738782 0.06923623 0.08428906 0.17503327 -0.14257732 -0.21856305 -0.5407453 0.054338735 -0.16531803 -0.019600654 -0.14002694 -0.019657224 0.58581096 -0.6153713
CGG 0.10583722 0.19087492 -0.33262902 -0.49034786 0.20780966 0.12486448 -0.0145930145 0.09092898 0.014153363 -0.11644836 0.32418582 0.33417085 0.2473704 -0.4628509 -0.017034745 0.4840654 0.1688409 0.2611851 -0.16376996 0.08583589 -0.06317308 -0.18943468 0.5600059 0.13498478 -0.008816902 0.067830615 0.17798586 -0.1208453 0.20223352 0.13975872 0.27360654 0.0010491014 0.45028275 0.13529757 -0.07327801 0.19817704 0.31566554 0.0023094276 0.13444541 0.18159088 0.14733064 -0.25697815 -0.4232746 0.06310406 -0.46655634 -0.1414885 -0.10957905 -0.03219334 0.009290146 -0.5123248
GCC 0.18596907 0.19222625 -0.15144232 -0.6224261 0.093665004 0.03996611 0.06908925 0.008085203 0.35435122 0.20260568 0.023793723 0.14046031 0.41278714 -0.22807367 -0.17699474 0.079144835 0.08153512 -0.043934375 0.21034032 0.04772931 0.18531156 -0.1583089 0.3829644 0.08251445 0.11216845 0.19374412 -0.09644851 -0.24255383 0.30816394 0.10620852 -0.010565983 0.08964232 0.49022207 0.16143443 -0.06332699 -0.21563892 0.40002796 -0.06780227 -0.10953315 -0.08140773 -0.43377197 -0.30832878 -0.46667534 -0.09989027 -0.2343047 -0.34358332 -0.32356775 -0.18377207 0.6105229 -0.6850974
